digraph Tree {
node [shape=box] ;
0 [label="Petal.Length <= 2.45\nentropy = 1.585\nsamples = 103\nvalue = [34, 34, 35]"] ;
1 [label="entropy = 0.0\nsamples = 34\nvalue = [34, 0, 0]"] ;
0 -> 1 [labeldistance=2.5, labelangle=45, headlabel="True"] ;
2 [label="Petal.Width <= 1.75\nentropy = 1.0\nsamples = 69\nvalue = [0, 34, 35]"] ;
0 -> 2 [labeldistance=2.5, labelangle=-45, headlabel="False"] ;
3 [label="Petal.Length <= 5.05\nentropy = 0.485\nsamples = 38\nvalue = [0, 34, 4]"] ;
2 -> 3 ;
4 [label="Sepal.Length <= 4.95\nentropy = 0.191\nsamples = 34\nvalue = [0, 33, 1]"] ;
3 -> 4 ;
5 [label="entropy = 1.0\nsamples = 2\nvalue = [0, 1, 1]"] ;
4 -> 5 ;
6 [label="entropy = 0.0\nsamples = 32\nvalue = [0, 32, 0]"] ;
4 -> 6 ;
7 [label="entropy = 0.811\nsamples = 4\nvalue = [0, 1, 3]"] ;
3 -> 7 ;
8 [label="entropy = 0.0\nsamples = 31\nvalue = [0, 0, 31]"] ;
2 -> 8 ;
}