digraph Tree {
node [shape=box] ;
0 [label="Petal.Length <= 2.5\nentropy = 1.576\nsamples = 113\nvalue = [40, 32, 41]"] ;
1 [label="entropy = 0.0\nsamples = 40\nvalue = [40, 0, 0]"] ;
0 -> 1 [labeldistance=2.5, labelangle=45, headlabel="True"] ;
2 [label="Petal.Width <= 1.65\nentropy = 0.989\nsamples = 73\nvalue = [0, 32, 41]"] ;
0 -> 2 [labeldistance=2.5, labelangle=-45, headlabel="False"] ;
3 [label="Petal.Length <= 5.0\nentropy = 0.422\nsamples = 35\nvalue = [0, 32, 3]"] ;
2 -> 3 ;
4 [label="entropy = 0.0\nsamples = 31\nvalue = [0, 31, 0]"] ;
3 -> 4 ;
5 [label="entropy = 0.811\nsamples = 4\nvalue = [0, 1, 3]"] ;
3 -> 5 ;
6 [label="entropy = 0.0\nsamples = 38\nvalue = [0, 0, 38]"] ;
2 -> 6 ;
}